function [Y,Xf,Af] = nnmove_110(X,~,~)
%NNMOVE_110 neural network simulation function.
%
% Auto-generated by MATLAB, 07-May-2024 19:07:00.
% 
% [Y] = nnmove_110(X,~,~) takes these arguments:
% 
%   X = 1xTS cell, 1 inputs over TS timesteps
%   Each X{1,ts} = 3xQ matrix, input #1 at timestep ts.
% 
% and returns:
%   Y = 1xTS cell of 1 outputs over TS timesteps.
%   Each Y{1,ts} = 1xQ matrix, output #1 at timestep ts.
% 
% where Q is number of samples (or series) and TS is the number of timesteps.

%#ok<*RPMT0>

% ===== NEURAL NETWORK CONSTANTS =====

% Input 1
x1_step1.xoffset = [-19.0505965768031;-6.70139767883548;-1.99738196042707];
x1_step1.gain = [0.053913604005474;0.149967019141203;0.500604127399131];
x1_step1.ymin = -1;

% Layer 1
b1 = [3.5802913313216042646;2.7221334487739539121;2.4277131884809288742;3.4999519435751196283;2.3304718543585525303;2.3755499091838916392;1.4305661585759625876;1.2904309346897770983;0.23925857102273320742;-0.4888838675867294703;-1.2546262109103083482;0.82190176977352102927;-1.6284540218139129664;1.7422187034059846145;-2.4208975014028721873;2.5779739483839407832;-3.0011353834688203612;2.318168578910682065;3.5952614761437935442;-3.3078872336051583503];
IW1_1 = [-3.668354239776275616 1.6736069614591875254 -1.007652051240329083;-2.558077774349206468 0.56621013895924277026 3.4119329098167834324;-4.3128259557084778208 -1.036501293609779939 -2.043745324370931371;-0.61618651517782663252 -3.181963008145549221 0.58353082234942088569;-2.8731688558256491817 1.8558856960198584218 -1.6620046081291699469;-2.3028538067335349027 3.0951931746068241935 -1.4090131773600589327;-2.9954139040855540799 -3.8596246402037994727 0.83286049399842188024;-3.9258359203183323949 2.1965236083611108242 0.50613638011666395311;-0.91314645209375733259 -3.5020611184179659681 1.9077591113754341912;-1.9575133119024625827 3.8384783390836991757 -0.59276769954761487913;-6.6247467072138430666 -0.33029646925752770281 -0.28407842694287854801;2.495097724584065535 2.7928882021037093608 -1.3322117650400675526;-2.5029815719002788121 1.7435410009550105226 -1.8587445819618040321;2.5007675248137841706 2.0522157711347999154 -1.5530831106347009474;-0.13181075076099704746 3.6135260085047438139 1.8887584788499858224;2.9952061321541192385 -1.7947360448647424747 -0.64888698344698358955;-2.2415229974321073669 2.4945070669215527737 1.7365978006220663676;3.2515851759211722438 2.7858281119727168473 -1.9347588291038055885;3.5997563473476739127 -1.0407353331513828909 -0.14553366676968249038;-1.9027338686476154006 2.9600407384853633097 -2.2610767531681124076];

% Layer 2
b2 = [-0.95804244490905898779;-1.1377400267695538805;-1.25707967466581505;1.4642761861711754978;-0.17434107360671630138;0.41453294211404151381;-0.67200188864187004878;1.4894110645241673829;1.0040327176716510316;1.0351696516779402835];
LW2_1 = [1.1491711774215049857 0.86913788871956543236 0.2152873612573570905 -0.29523091149923991194 0.60434935279922319395 0.40019429518715871064 -1.3725503786520436567 0.60295464249490848818 0.13136685232286396396 -0.92611264018982075719 1.2192155894129199645 0.217914116227254262 -0.25276308430902122426 -0.59143572680917810835 1.0658681720362015444 0.46940461716049630692 -1.1615228336073046833 -1.3915196562482912146 0.6524260099004923763 0.48044401219022425664;-0.43395121710184952901 -0.45474878767719650874 -2.2605170046994844668 0.23509615548709980604 -0.9866367586528560496 -1.6303620784914114594 1.4152833002389926254 -2.7515035777570777675 1.6681890118379021359 -0.14159679934826518988 -0.21129419413744784939 1.4754631299303779812 -0.31154691092427955201 1.4347545868900530852 1.2839355613857603711 -0.13940479791031046286 -0.07929868301846559886 2.6849158283326652885 -0.3035197890173106372 0.24771687100670203296;0.67136825415128087435 -0.34375550381526309707 -0.26775693747697693059 -0.58486154202789752965 0.060779464452801773566 -0.14455292581506129501 -0.7004254947482070337 0.49174161978962793729 0.5557637641469596046 0.13881520036590508371 -0.2825319413052599371 -0.51400988279103876355 -0.69104570448686286621 -1.1437379145129007441 0.84879207480552454346 -0.94843603354806205186 0.019754081031044319616 -1.2894660228452217154 -0.021219896479535756834 -0.15846318561565436722;-0.50122270443987138044 0.93328043795002935124 0.08133390986788230359 0.41174334403073470368 -0.28718924651047755825 -0.13758384102251050574 1.03508485804164585 -1.2318389707975228031 0.22252727583833523117 1.0532161114942419911 4.9418575417879289091 -0.45059479523608186868 -1.2630883712884000136 -0.58960246307256136689 -0.53843267779903658532 0.10226181803258865832 -0.85870475139631563533 0.33698840723655998364 0.75564098658498590755 -0.23593184964826971473;-0.014086247413387698729 -0.02690676436397949553 0.65159614945698718369 0.0074611306635885728256 -0.58422597252056895911 0.20306741892835883379 1.5540494976755883094 -0.59481479502446232832 -0.5709987138275356422 -0.060539786325090466645 2.1625366286581111375 0.46162127923715062794 0.93809139015095188707 0.37464734735706367585 0.10991095526154667783 -0.10040800614453329609 0.85217880675031076887 0.017319923070171140689 -0.065900199089617153558 0.8203371991717210987;0.55504867358003329159 -0.13591622590575308527 0.29218282275903345591 0.59676954086791611509 0.097171447572751146193 -0.35606425021433391054 0.92984849717604212138 0.44590055608957956945 -0.18752142379739977773 -0.45624678607786034457 -0.36300202662243863383 -0.13404447344640979534 -0.081727214493313701804 0.2189050366536386405 0.33134966211814365078 0.21489655249529049375 -0.21874899585303828053 0.86465477372373689136 0.032519679696738579278 -0.81311226203337627627;-0.38884758934155849719 -0.0086046181154889583159 -0.50267830389941547953 0.1146302027577613819 -0.44939423140725098804 0.85460181921668143534 0.093969118158141767827 -0.041011925350313012395 0.16569769014719037958 0.28970327229671505309 0.13580920244404237618 -0.58175126407012611729 -1.2422393960872699648 0.039714446463279977351 -0.32511118254523618809 -0.50610344459360145919 0.35016117849750244551 -0.066198252595555867606 -1.2473903255205611718 0.79224451852923116757;1.0454115307042839422 0.64984774287743674037 0.46496211684501870254 0.50799509648874452417 -0.017852641314283945045 -0.051965125658907679318 -0.37458091119042780104 0.75526523047070082129 0.025897586486016661161 0.64160403516011021985 0.57579878048509647304 0.25123325660035933371 -0.18122814382338633954 -0.21281117827338869031 -0.47420778998805507287 0.97004567500309435424 -0.054273362558120825938 0.050541937777773278395 0.47540526332594074121 -0.73978191425002703951;-0.016079693520137123414 -0.98200530964812982049 -0.52206558834942973224 -0.32309719343581355666 -0.90751848384347466592 -0.19784124248172182958 0.7310687458528084548 -0.76191538043116313617 0.11364318431720933644 -0.72359465555550550597 -1.9033844840565681267 -0.22857769806464145468 -0.61770310517936810601 0.75010888723330138017 1.0793086046965487679 -0.68215898841062538871 0.19474046223735641536 0.6356399256172918788 0.11000286839475660605 0.15989651879474808815;-0.094390141366053323391 -0.50113251958779558848 0.55567963443359813525 -0.41134822668686404912 -0.45310271291257347981 -0.37763783602988881816 -1.6830761994780978341 0.19769168044414894836 0.48336131233764589865 -0.67036282469249497407 -1.2478165347737801838 -0.062668263965403550597 -1.1337054710149931935 -0.41002596110788319672 0.085722526206726545883 0.12603209428203931974 0.66434188650143455313 -0.33165552981877183258 -0.25921671422296838072 -1.1044273176434233896];

% Layer 3
b3 = [1.793075275260453294;-1.5609039170370253569;-1.7217899091420083568;-1.3926343361554178735;-0.68311530498906292141;0.89785356108300795608;-0.57619998610070433109;0.65261440224030564661;0.33371676102846459244;-0.2104457649928408447;-0.18523334514383144045;0.57457535192040842809;-0.10008094818661622538;-1.2971190098010603187;0.65603529604296229039;1.1231808256843101024;-0.91011173648269461101;-1.5008955061465947267;-1.8034719559361283014;-1.8732560544296230631];
LW3_2 = [-0.6012196309223541979 0.4615939165702177549 0.76848769506148595365 -0.64681906867864813471 -0.60073632107482533016 0.53823984550011139127 -0.66510782548804958658 0.41904054374068122613 0.27854967322207391245 0.46308478139199427126;-0.52550500657627752243 -0.53187617852848223521 -0.59881811994789246878 0.61073815847357415532 0.62529272524719414772 -0.63328127461106265006 -0.70241405146948321381 -0.33968386948007517345 1.1506672426400550435 0.15936200299792963042;-0.32596157147618443073 -1.0001195645137201939 -0.24712135254056305511 -1.3169924748632948486 -0.73926624652385775072 0.71624377469267730412 -0.43957520123860838179 -0.1892686802376615518 0.71474437303248850029 -0.35953774155378975808;0.83929898629492150075 -0.073339136972371585244 -0.40335917050219632918 0.37700303100762988517 0.93161046642529310446 -0.99059002120685535342 0.69052717339810509856 0.27642716522391330702 -0.33977291260017922214 -0.22892559115525595859;0.09076238117108893777 -2.9654059155476923948 0.42003437348656480488 -0.31550019800867690201 -0.77644695415271369754 -0.31327265758009820162 -0.95756052845768147019 1.0191534785288858256 -0.49605784007019393389 0.69585546373928719444;-0.18241114359941776324 0.35293559669414553692 -0.13807483128556569119 -1.178463903944402702 0.53367670915094456152 1.0653858530552260397 -0.65928518082324716332 -0.063238375206790639615 -0.092201634633434143007 -0.87406861579688066577;1.4353704326913832023 -1.0410891443732150918 0.86430646104417596653 2.5457446584919933841 2.2072269825465640203 0.74249347106924334927 0.58219958160849993867 0.88033815791606229162 0.64227601992364413697 0.16590755078127669697;-0.86387220660471908396 0.13002566766034814871 -0.43768004265724697044 -0.046057926679663900582 -0.59537912642650669959 0.77407466359455456839 -0.053624477697236813678 0.59579932653855827152 -1.1049831012770006122 0.4101379959623234206;0.1608435470348580365 -0.3847204462701894756 0.88537765199752960221 -0.14276131847068679326 0.41244310735911038357 -0.55719090639537260934 -0.94447600105857010266 0.44441309479713442254 -0.88777247324932462291 0.13202695027922781157;0.55417723647416294863 0.53147654460893289929 0.87610408102755665816 0.90446578142941791434 -0.37126397352997703161 0.079402337923935306652 0.99429350085646017732 -0.70580257518365008274 0.16888035673184231822 0.15123635850679026382;0.41298333292651823179 1.0360116648125883287 0.42655859475847823781 -0.78155535445280255313 0.86217136999685539678 -0.068327664168595841909 -0.77626628059367297485 -0.61073871038997318283 0.95993848915478519057 -0.14492185542887056626;0.58571107972322755675 0.15800517882433770533 -0.91035052603076316302 0.7272144887643133826 0.18434134721417344549 -0.64843717510655496383 -1.0196698435657576276 -0.34687483730089258005 -0.42407368743183276871 0.44047140905896242646;-0.60959445173367543536 -0.44072099285786098255 -0.83299851346508246852 -0.71877638775067742571 0.26482747665308858931 0.96469197822545260657 -0.092113629281415143613 -0.33987860566074484803 -0.70153933862306538938 0.32489198048106143757;-0.71021359882119872164 -0.63967625023942298323 0.02694402366177208602 -2.7766106285510039342 -1.2986741605349430007 0.27948833773775710876 1.0567164041617054249 0.032232186098523837869 -0.94348003315349537878 -0.81548010614472010715;0.83756361725873773594 0.65867277405820989777 -0.01761186780646360403 0.76902935428548546692 -0.35877280866214039667 -0.68960478519259427177 0.085636470403736231205 -0.98229900310119011575 0.5630224806797770043 0.5197957994664711423;0.53077711300512087078 0.58211496842005394647 -0.68546742257654780239 -0.24762716151607599979 -0.17206481825049552148 0.13986363246056762732 1.2641808596158945477 -0.1813111982926122745 0.94171562431455646536 0.11755337233934411156;1.4293475410672904502 -2.1103196300706761335 0.68124152457225972679 -0.21316078471452915011 1.0435852760041639531 0.22365357250517600707 -1.3665434912720204608 0.73012348843621632799 -0.19593958447940204581 0.50406839637310540958;-0.085234135124252818905 0.25587487747905662827 0.38127764468763669647 -0.10362426855611701904 -0.062152814221225656521 -0.77229446043839677927 0.76787077125859981575 0.82239497213104384432 -0.88599208650434357892 0.82923349902883947138;-1.5566257871236084398 2.7657856231404296388 -0.89521718470472910756 -0.38718977495931689026 -0.05367749004345311048 0.26476602326626363926 0.73707790771426096033 -0.02311069030147311007 0.45323801821538084456 0.2073076842169125078;-0.42203541522118864782 -0.9167572388641931358 0.90988354672531546186 0.50291127611913921669 0.63875629116685805897 0.64339263177812711092 0.75630307196875623532 -0.47830728354027723936 0.55270105544756709115 -0.087301506118284175062];

% Layer 4
b4 = 0.24705981643462807118;
LW4_3 = [0.32047512299601843555 0.11750096468536597172 -0.82407579397723806913 0.22369811395962166389 1.101151469766619817 -0.3433320559286520135 -0.76434352346790668253 0.57222465570214453567 -0.43494201268970922314 0.44775157157181783019 0.79081854330427081567 -0.17656727973177080426 -0.22387358583353650365 0.86472749848846852672 -0.61467255093158790213 0.16219896371169736926 0.96969495124283577869 -0.10644765940334752208 1.824058087715775045 -0.74370985825298763228];

% Output 1
y1_step1.ymin = -1;
y1_step1.gain = 0.499999999999934;
y1_step1.xoffset = -2.00000000000028;

% ===== SIMULATION ========

% Format Input Arguments
isCellX = iscell(X);
if ~isCellX
  X = {X};
end

% Dimensions
TS = size(X,2); % timesteps
if ~isempty(X)
  Q = size(X{1},2); % samples/series
else
  Q = 0;
end

% Allocate Outputs
Y = cell(1,TS);

% Time loop
for ts=1:TS

    % Input 1
    Xp1 = mapminmax_apply(X{1,ts},x1_step1);
    
    % Layer 1
    a1 = tansig_apply(repmat(b1,1,Q) + IW1_1*Xp1);
    
    % Layer 2
    a2 = tansig_apply(repmat(b2,1,Q) + LW2_1*a1);
    
    % Layer 3
    a3 = tansig_apply(repmat(b3,1,Q) + LW3_2*a2);
    
    % Layer 4
    a4 = repmat(b4,1,Q) + LW4_3*a3;
    
    % Output 1
    Y{1,ts} = mapminmax_reverse(a4,y1_step1);
end

% Final Delay States
Xf = cell(1,0);
Af = cell(4,0);

% Format Output Arguments
if ~isCellX
  Y = cell2mat(Y);
end
end

% ===== MODULE FUNCTIONS ========

% Map Minimum and Maximum Input Processing Function
function y = mapminmax_apply(x,settings)
  y = bsxfun(@minus,x,settings.xoffset);
  y = bsxfun(@times,y,settings.gain);
  y = bsxfun(@plus,y,settings.ymin);
end

% Sigmoid Symmetric Transfer Function
function a = tansig_apply(n,~)
  a = 2 ./ (1 + exp(-2*n)) - 1;
end

% Map Minimum and Maximum Output Reverse-Processing Function
function x = mapminmax_reverse(y,settings)
  x = bsxfun(@minus,y,settings.ymin);
  x = bsxfun(@rdivide,x,settings.gain);
  x = bsxfun(@plus,x,settings.xoffset);
end
